{
	"nn_structure": [
		2,
		45,
		2
	],
	"activation": "tanh",
	"mode": "regression",
	"optimizer": "adam",
	"learning_rate": 0.001,
	"l2_regularization": 0.0000014,
	"n_iterations": 20000,
	"parameters": {
		"W1": [
			0.01025539988966996,
			-1.0427733926666485,
			0.10289236625783921,
			-1.3535953591939374,
			1.7561365936350584,
			0.035734266430380586,
			1.6901752434906805,
			0.04812154739672461,
			0.4524384960693191,
			0.6316857479619109,
			-0.27235426071049035,
			0.07248698788104067,
			1.7632624453817671,
			0.26094867765216045,
			0.028614369505252254,
			2.297844387377769,
			-0.17054735300917612,
			1.5522780378938452,
			-0.1971120861999709,
			1.1019973405269534,
			0.21261198562777517,
			-0.4449958930099284,
			0.610786208151153,
			-0.411908163694305,
			1.6468276772449557,
			0.22984090089154344,
			-0.16698464564117205,
			0.7271788769309195,
			-1.5640173783721203,
			0.049186097351333447,
			0.3528103819530033,
			-0.3347527021499226,
			0.34079993404773473,
			1.1051010846674978,
			-0.5986108042196219,
			0.524186774898282,
			1.9607265899554873,
			-0.3946034957680816,
			0.005488655457103284,
			-1.2478364997931068,
			-1.544267738646189,
			-0.13246006588798517,
			-1.457516935705094,
			-0.18285724644521698,
			0.402202329170708,
			-0.5189714155037963,
			0.0035734380371958384,
			-0.2605959779955298,
			0.16711085348903915,
			-0.3632461338365227,
			-1.7454043636027305,
			0.08143362715022832,
			-0.6919560509623208,
			0.5602167497276216,
			0.4530274641136559,
			0.5148043537840573,
			-0.537352178909398,
			-0.44105815412717575,
			1.9815428004369593,
			-0.04073450846461068,
			0.026892645848329455,
			0.9742881104236676,
			-0.21267692940902294,
			-2.391497991196053,
			1.8237089006337392,
			0.027725224107852015,
			1.262145442685869,
			-0.08588572887353933,
			0.016552602465423893,
			-1.1660598497966996,
			0.9432920810365146,
			-0.7146804197808695,
			0.7675215521687045,
			0.2846145878940494,
			-1.4527091718860161,
			-0.07414381995019333,
			0.27399510790568266,
			-1.1577314768334899,
			0.2281665011352789,
			1.0908365662917388,
			-0.08515712074223404,
			-1.8867668234506338,
			-0.2723296784018002,
			-1.422451809683593,
			-0.5214305032502139,
			-0.5727609812835192,
			0.20241370002364126,
			-1.477945470584554,
			0.4792174598566286,
			0.08438864077077661
		],
		"W2": [
			1.6662653613889875,
			-1.5015098267632756,
			0.01688341523343687,
			-0.1986368074509959,
			0.775005503623025,
			0.706200855912668,
			0.12692868109882915,
			1.8777635507543637,
			1.875857998119642,
			0.4041794298078393,
			-1.7869631708156468,
			-0.7692589217225339,
			-0.31186595510542053,
			1.0020017086288302,
			0.6342437636001783,
			-0.6688676694185871,
			1.3120635870560802,
			1.0586093514802948,
			0.20519621839306296,
			1.3298037531347828,
			-0.03107824331013175,
			-0.3076346388468044,
			-0.6433274742952765,
			-0.5423410571434771,
			-2.1993214814493927,
			-0.8536014777775243,
			0.7836986239580902,
			0.9088922119589334,
			-0.7135521140108653,
			-0.536479599634802,
			-0.9692495914459563,
			-0.7590363975775596,
			0.014816281851730369,
			-0.44916981303418607,
			-1.3309325730708677,
			-0.24144739826487444,
			0.5055455313106142,
			0.15513752328428312,
			-0.5150824973019493,
			1.346831508800983,
			-3.1631767728663323,
			-1.3778163839994886,
			-0.5831529202124659,
			-1.7019601401650526,
			0.4717362254718399,
			-0.6729393285795211,
			0.07489200646540593,
			1.4611768400827965,
			-1.386084092065674,
			-0.8880198324625552,
			0.9528465129809696,
			-1.5328626501638194,
			-0.5135027861910961,
			-0.12903975383897703,
			-0.294712679977838,
			-0.7799882098845118,
			-1.3669896576170162,
			-2.6176363274123204,
			-0.04581929310310357,
			1.0525809319874382,
			-0.8880709858735174,
			-0.10637622516274815,
			0.8202663073547339,
			-1.5637195480489543,
			-0.19931288752740886,
			1.5676554887403882,
			1.3916050804125524,
			-0.893826494992524,
			-0.3632975122637184,
			-1.1233245432692585,
			3.3270538731289383,
			0.6586757851335053,
			-1.0724633746144834,
			0.29747048281534116,
			-1.1187735929802642,
			-0.7464702617270105,
			-0.2801850684540554,
			1.3251657184149173,
			-0.9569823640424255,
			0.12717622945308177,
			0.11940226168831851,
			-1.1954472214773353,
			1.632419704348756,
			0.17286485764144838,
			-0.9477694641919111,
			0.25279139102245446,
			-0.4716798767045712,
			1.1661642314212088,
			-0.31568449346158456,
			-1.8890473309487026
		],
		"b1": [
			0.33960358716235145,
			-2.41368893249757,
			0.4635658855451353,
			-3.312639586785429,
			0.9698133773770055,
			-1.1172727051733204,
			-3.5304732946834188,
			4.279285385073179,
			2.8600099955255462,
			-1.8875745201256133,
			0.8182531736834866,
			-1.0489637917805787,
			2.993343744016283,
			-1.3166782124207352,
			3.0621546780616598,
			0.5895835141834777,
			-1.7301756211454902,
			1.7446270465077331,
			-3.7400838572140507,
			-0.2850532814282835,
			3.042845887103019,
			2.825926194962013,
			-0.15149025924006684,
			1.0219507262094687,
			0.7654728679502673,
			-3.0375888302253555,
			1.9334520928424241,
			0.07322141872280248,
			0.004613700121282133,
			3.4555239258848798,
			-0.1692060469071585,
			-4.306129999372286,
			-0.6580961533736485,
			2.0029442016088788,
			-1.8164036757071076,
			-0.29906474029319013,
			-1.1602218551491288,
			2.7138543558744788,
			1.9523576897459634,
			2.088223878205183,
			3.0863777133953088,
			-2.3954573722852195,
			1.0032392672801944,
			2.649727890327634,
			0.33679778045894143
		],
		"b2": [
			-0.781361019160338,
			-1.8123270498432364
		]
	}
}