{
	"nn_structure": [
		2,
		45,
		2
	],
	"activation": "tanh",
	"optimizer": "adam",
	"learning_rate": 0.001,
	"l2_regularization": 0.0000014,
	"num_iterations": 20000,
	"parameters": {
		"W1": [
			-0.8011713214249904,
			-0.2783009742184048,
			0.028895658444562728,
			1.6308513347167157,
			-0.1937557613119222,
			-0.7017113991751536,
			0.003393318117107181,
			-1.2152151607762525,
			-0.1838867139053064,
			-2.336136392479082,
			0.29489665356747924,
			0.4575432094928396,
			1.2292586455096361,
			-0.03218681484033809,
			0.015939632502432934,
			-0.44355288200924353,
			-0.03522598574628645,
			2.1281883439768654,
			0.2466609421411284,
			-0.9496424176177792,
			2.166597616796435,
			-0.23988610875315122,
			0.09258642755466835,
			1.5331475731763642,
			1.8006919511345587,
			0.2900440779280586,
			1.1808208311606159,
			0.10530538462094402,
			-0.33327768512864475,
			-0.049548736615045594,
			-0.1337549544085213,
			1.7550177515572216,
			-0.2718179601244562,
			0.3586642583550983,
			-0.22721729527835782,
			-0.4477852154084,
			0.24304806742491775,
			0.011341691175321588,
			0.8361196397628246,
			0.6564053642515525,
			-0.2121347830960733,
			1.4802549889653354,
			1.3305524964982367,
			-0.2876845853731332,
			-0.2191599943200842,
			1.343132528111375,
			-0.21620972910808012,
			1.041315381129817,
			1.4814721684166583,
			-0.05566067715055784,
			0.0008333564603539942,
			-0.3718178519101629,
			-1.4987133995493604,
			0.05839537279025384,
			-0.19903623181809482,
			-1.4727102249002473,
			1.0191216487428696,
			-0.3885394296711322,
			-0.42425056104936304,
			-0.27814964705745604,
			0.2712898503534742,
			1.1859621899792234,
			0.011879467452084074,
			-1.3426867778952025,
			-1.47339637143618,
			-0.21336757450647514,
			-0.1500477143490336,
			0.6900622962051219,
			-0.10655795796250794,
			-1.5177411985727876,
			-1.579692772501646,
			-0.23697912430351462,
			-0.11353316344895638,
			-0.9476761946028814,
			-0.0074826499197030985,
			-0.9468568419631829,
			1.5031770836070617,
			-0.14568684502059914,
			0.3559303839954449,
			-0.3110676292075662,
			-0.06795194514173875,
			0.8943349431318276,
			-1.2599455388242653,
			-0.03220066052149698,
			-0.3620762018366503,
			0.510886429176994,
			-1.3470943932622894,
			0.0870279748250608,
			0.8074723021671005,
			-0.31382488960822114
		],
		"W2": [
			-0.490398221920729,
			-0.9212853066930282,
			-0.2059362103899594,
			1.1250372918949356,
			-2.0873288502442895,
			0.4657499397187045,
			0.3343661538278532,
			-2.152149440118556,
			2.823620614828119,
			-2.152180407257532,
			0.04193564136736471,
			0.9562629661131903,
			-0.18957719322388314,
			-0.7505352538415375,
			0.4743975612642692,
			1.353882172515847,
			1.2120448901617642,
			-0.48906726511164406,
			0.16601989370500272,
			0.5285921189275802,
			1.1581066509115912,
			-0.21384076812009106,
			0.9187832622598503,
			1.2506469562737983,
			0.6254101271795933,
			-0.5425348613600778,
			0.3929843827614828,
			-1.1448061973331338,
			-0.5687309781946696,
			-1.5135034796268807,
			1.4137103443423251,
			1.301509652083503,
			0.3587261602222769,
			0.7556579408962661,
			-1.0244138132542804,
			0.06233074625532645,
			-0.6405561898930355,
			-1.4977259673582377,
			0.3362206474511687,
			-0.21139147654209778,
			1.156584159218147,
			-0.03578216294100606,
			1.265064238922511,
			0.5518313913113905,
			-0.11827435162558661,
			1.0438611028822258,
			0.1901649771074883,
			1.1153676767022302,
			0.35575986719459224,
			-0.19558243403279213,
			-0.6178319141090042,
			-1.109981233141402,
			-0.15732542615024908,
			-0.36371628021525915,
			0.06322600918039284,
			-2.9504845374555577,
			0.03168071889875285,
			-1.328155111890647,
			-1.265054544485439,
			0.28474964063959485,
			-0.44998508787850233,
			1.0632715446240868,
			0.7633494432846197,
			-0.7011523993142054,
			-0.6959444030300936,
			-0.2245490703707286,
			-0.8210867000348756,
			-0.19510744014623904,
			-0.5285724118236925,
			-1.3497597556601726,
			-0.5402971839720266,
			3.126626849114684,
			-0.04114860155581091,
			-1.2278938478367558,
			-0.023880583289889443,
			-0.10195440226758891,
			-0.44741672938485194,
			3.228492176493408,
			0.12234268157332094,
			-0.13765100540750286,
			1.3494373025529922,
			0.3971629400553192,
			-0.778101573283369,
			-2.5847716999323866,
			-0.37865676328893555,
			-0.11848000454226133,
			-1.9014243376361353,
			0.4500249089398871,
			1.6199512660193633,
			-1.405458155328986
		],
		"b1": [
			-1.8966426377619137,
			-0.8308746592748356,
			0.39535606162477727,
			-0.19263040146263435,
			-4.269511564922725,
			-0.6875237776668404,
			-1.733892289472142,
			0.8503296107602549,
			-3.5737630454018405,
			1.6958347047407896,
			-4.355163605434706,
			2.775406431872687,
			-3.5327340291346077,
			-1.9605429507295336,
			-1.2752542367685367,
			3.461645368343301,
			-0.17913783657056276,
			-0.23824192208785283,
			0.1561399225223125,
			-1.9520071012278652,
			2.8405341934784043,
			2.055628165960448,
			2.5051299427030798,
			2.035585363400626,
			-2.6654418187287128,
			1.0990057272183575,
			-2.7326428786619243,
			2.43543070298444,
			-1.9838685435509762,
			0.03983691350431413,
			1.7799960203430347,
			-0.21477118946535798,
			-2.611440825241466,
			-1.3093743191067282,
			-2.5218143729584117,
			3.107318343542861,
			1.473510852304281,
			1.9140734582874765,
			2.647155944659611,
			0.3652206398120661,
			1.6074627716272776,
			0.11776023775454887,
			0.354847236518099,
			2.7464928365179317,
			-1.3973495144500323
		],
		"b2": [
			-0.653422373047688,
			-1.1629204761202732
		]
	}
}