{
	"nn_structure": [
		2,
		67,
		2
	],
	"activation": "tanh",
	"mode": "regression",
	"optimizer": "adam",
	"learning_rate": 0.0025666911788505375,
	"l2_regularization": 0.000004373962345462438,
	"n_iterations": 20000,
	"parameters": {
		"W1": [
			-1.3274585804050136,
			0.007146206530344791,
			0.00768558484672967,
			0.2385820225139997,
			0.02722643000630259,
			-0.8042388114857181,
			0.5822719756680415,
			-0.07674690381670851,
			0.2745791891462048,
			-0.47315938142828656,
			-0.23519916130200624,
			-1.56507776179138,
			0.006089731798379185,
			-0.7655477963704085,
			1.4807120656426704,
			0.4185226788795767,
			-0.02669135337765326,
			1.591181939808651,
			-0.24408910194374642,
			-0.424466754325428,
			-0.0009065155911735801,
			-0.9951646042479377,
			-1.7131129285367999,
			-0.26032585672198616,
			-0.7760613443949863,
			-0.07510650611694403,
			-0.6832832461407327,
			-0.10793290159790199,
			2.229172490044226,
			0.09047813271803719,
			-0.10893800719340874,
			-0.32580907299663386,
			-0.3402861325090707,
			0.18577308460797873,
			0.27049421634515947,
			0.8551551644118589,
			-0.49539075025947343,
			0.571320206143455,
			0.07462309506590338,
			1.5206217848042742,
			-0.16219855995445917,
			0.26203746082122,
			-0.19535829745212077,
			-0.27681254775521474,
			-0.5777829586399961,
			-0.46245708522020007,
			-0.31164463394338204,
			-0.5932911592756118,
			-1.726327699073265,
			-0.1324088387951254,
			-0.440303882248039,
			1.2659407556283229,
			0.00867225798448543,
			-1.101326671902669,
			0.13881417156549766,
			-0.6562586531223803,
			0.11191292968192793,
			-2.2606480431045766,
			0.06317228181574393,
			-1.6032986325418126,
			-0.3820348501432553,
			0.5307463816741537,
			-0.2804116818963248,
			0.4600858265544993,
			0.0016971985828351317,
			1.29982701946642,
			3.037719673188727,
			0.1081183662550059,
			-0.15475385076583115,
			0.24716038088303502,
			0.20889936467374157,
			0.10589821636346433,
			-0.23581671480924055,
			0.8878664895877753,
			-0.031230283130508033,
			-1.8550419255982205,
			0.171523815945196,
			0.37206706189796035,
			0.3786273915343914,
			-0.30024884932150137,
			0.0893230269414531,
			0.09218746432051869,
			1.4180345799874214,
			-0.11826663747213653,
			-0.35029248116976297,
			-0.5089051108694632,
			-2.1530745555956092,
			-0.42709348827729543,
			0.18806487989712242,
			0.37207769799964097,
			0.8989126570995267,
			-0.35219068169877216,
			0.9530962121044659,
			0.1761109314559834,
			-0.5242286790046324,
			0.25865225982218093,
			1.318105581163704,
			0.13560853903665795,
			-0.0606251834260369,
			-2.6882068838170676,
			-0.010841155444993514,
			-1.604099549559138,
			0.08413159990072935,
			-0.0980385111094364,
			-1.5462552473956233,
			0.19540937350149185,
			-1.994815322248371,
			0.25152535898729417,
			-0.2025546673357519,
			0.20029352439576567,
			0.557510702230615,
			0.26191995405492746,
			-0.17354436430910317,
			0.2894581102485658,
			0.3906313084743748,
			-0.3245902346799248,
			0.1673582940694623,
			1.8956671312519928,
			-0.31055186145155583,
			0.5983831224507963,
			0.044224108482942816,
			-0.31835959534502806,
			-1.6999468765345247,
			0.183984718744116,
			0.16755543002515916,
			0.27681363959153893,
			1.250944329234375,
			-0.05057817560501493,
			0.020083065589508644,
			-0.21028827881272433,
			0.15342177023962145,
			0.2623697440551413,
			0.015709449264176466,
			0.24427264784593197
		],
		"W2": [
			-0.007305752728445894,
			0.6277196329899398,
			-1.0192133244146193,
			-0.6016210912248954,
			-0.2195905590304105,
			-0.7545084739212731,
			-0.9526893745878254,
			0.4571843787301964,
			-1.340916833599882,
			-0.511883821424064,
			-0.6868156023366827,
			0.05004305411694663,
			0.41044476815275444,
			-0.6127442712763596,
			-0.1322854664597115,
			-0.2470918839531446,
			1.6181482122881052,
			1.1200082123781248,
			0.46414774407562115,
			-0.9938877425154863,
			0.11892642689069885,
			-0.16642259858753322,
			-1.4345141133623085,
			-0.4459284009675448,
			0.42579990163059095,
			1.035150254977235,
			-1.0654006559762486,
			-0.09700523781700378,
			-1.7446497881786185,
			-1.0351217988102777,
			0.762767069099849,
			0.5059437920707551,
			1.2003181111781158,
			-0.2889201578722085,
			1.215084061877673,
			0.04645225907781411,
			1.806578127418371,
			1.1241650263696799,
			0.6809202707308255,
			-0.8931828169700737,
			0.10146428837975792,
			0.21525100879726375,
			-0.5937791767629906,
			0.421526955176342,
			0.45157146159960576,
			-0.7035850942482019,
			0.4815647066876542,
			0.1532427246395716,
			-0.23169646457051343,
			-2.005407612150824,
			1.2682419783525438,
			-0.28037760100143416,
			-0.4058129092682691,
			0.16782667618805377,
			1.0547368705600435,
			1.2335591664906358,
			0.6666336549153912,
			-0.6022594908641069,
			2.6570547884153397,
			0.6475057340186383,
			-0.3019467553710853,
			-0.14892860489567725,
			0.9162052768094164,
			-0.18838655069133414,
			-0.49723356280321646,
			0.3705431874817226,
			1.142208783409891,
			-1.848556301102425,
			0.08273260356999824,
			0.18260996014914796,
			-0.5756225775266675,
			0.04424694205037714,
			-0.05578313924070736,
			0.1922995263293864,
			-0.8122936792632166,
			-0.10987502822128724,
			1.2439821642307043,
			-0.37595684778011995,
			0.7092987786053766,
			0.7516387161442049,
			0.7444133847327704,
			-2.997217631695796,
			0.23887535119925365,
			1.4821892901893086,
			-0.47360871534275883,
			0.553243479612676,
			0.09794776765453433,
			1.134138275521251,
			0.11459141044899393,
			1.5480316569979313,
			0.5513080617540717,
			1.2064065495447276,
			0.4069950778143716,
			0.41622124650408016,
			-0.9744603811665556,
			0.28406787783100634,
			0.18204735162367433,
			0.5470422816980662,
			1.117668255698566,
			-0.3851993504692445,
			-1.6270363176942926,
			0.42400491163091353,
			-0.45042829269793466,
			0.050427309436422096,
			-0.03380109991043484,
			-0.3236050512485214,
			-0.49737316585921215,
			0.19442680840481855,
			-1.054541458046287,
			1.0710267370544293,
			1.2365407065826242,
			-0.0004002758666050883,
			-0.88962725550964,
			-0.6957977937098124,
			0.5432980620025963,
			-0.9260254687873406,
			0.12497154825789597,
			0.07778172599825339,
			-0.1327296997720793,
			0.8238110479232001,
			1.2645182795705152,
			0.709079692363044,
			0.3531085627168683,
			0.5146687577776133,
			-0.9509857648847885,
			0.1152612794183509,
			0.4798529044147616,
			0.23085091032812138,
			2.48881289364969,
			-1.07261071125371,
			1.4086746102005814,
			-0.272220480467373,
			-0.8617015141127001,
			0.006100005407909944
		],
		"b1": [
			-0.24964939951660473,
			-0.7848423316566033,
			-1.411749571953104,
			1.2435300123399238,
			-0.04996851564476266,
			-2.8554847142286257,
			-1.2741603369048302,
			-3.1365881063650587,
			0.24106946329316,
			0.0361520389115854,
			-1.8675473854201192,
			-2.4382244569521556,
			-1.415190324719874,
			-1.1506259564419201,
			3.941258845969915,
			-0.3284111688803657,
			-0.9869948835881097,
			1.4775902267943823,
			1.6591964700789334,
			0.23574121922406296,
			0.4333720723473852,
			-0.0718762752345474,
			1.1183672742106228,
			-1.2808206201580699,
			2.22395472163142,
			2.768105995748812,
			-1.978612446282039,
			-0.20156654411081304,
			3.6729253514025046,
			-3.06658803272401,
			0.7028888038884491,
			1.0624519119667934,
			2.330721464154003,
			-5.568220374547966,
			-0.7989359041626607,
			0.37498365652876875,
			-1.76329560046135,
			0.7914557826485563,
			0.5927466208734203,
			1.0155888183010495,
			-0.6459477785341596,
			-2.5517424320327056,
			0.10027175220046806,
			4.22624292520618,
			0.13603056265757116,
			-2.0117337461419504,
			-1.8960925981065733,
			1.248876340784277,
			-2.3806544994011634,
			-4.955079762866302,
			-1.2146048495339146,
			0.8958944425856707,
			2.9967594092137055,
			3.859462957925051,
			-0.7840356209437535,
			0.09766038671250185,
			0.1327183178980981,
			0.47204734015444144,
			-3.1049422363143924,
			0.4203275970738173,
			-0.5044607595745383,
			-2.722103033624166,
			0.395957361677402,
			-0.5187539609957036,
			0.840501734626186,
			0.3526535920860532,
			-0.5293191978758816
		],
		"b2": [
			-0.8091886474450881,
			-0.9917601955402214
		]
	}
}