{
	"nn_structure": [
		2,
		50,
		2
	],
	"activation": "tanh",
	"mode": "regression",
	"optimizer": "adam",
	"learning_rate": 0.0019367499121276386,
	"l2_regularization": 0.00008722459004152241,
	"n_iterations": 20000,
	"parameters": {
		"W1": [
			1.3107688579364989,
			0.21554665304291176,
			0.06679411090206364,
			-1.3974266637807746,
			0.3376205609461597,
			-0.19461133680987916,
			0.09060312218583721,
			0.2418869324288537,
			-0.24639950606077923,
			-0.9967307310972655,
			0.32039501476897536,
			0.38242151838057864,
			-0.3513163542758139,
			0.6576242796817473,
			-0.1865148467887317,
			-0.554596890962662,
			-0.24819629318182682,
			-0.46230204084773036,
			-0.7668992815979204,
			-0.02290861655560157,
			0.7963253577831081,
			-0.1085332540658016,
			-0.47062537389706033,
			-0.3330208102189986,
			-0.11887212664922958,
			-2.35964589705176,
			-0.9567672396820466,
			0.0192729956753432,
			0.3562415156247075,
			0.6974831288954784,
			0.006686719865524399,
			0.2634833779888552,
			0.259891121916778,
			0.6618173961234582,
			-0.9845395005771019,
			0.38574554002597367,
			-2.232981328421951,
			-0.2804707643633245,
			0.03588484951141677,
			1.6886324274532458,
			1.0748756222471763,
			-0.23754050976454985,
			0.2600558817139677,
			1.4062952412885594,
			-0.011000914769202912,
			1.6574342425776663,
			-0.33542803544805344,
			-0.385585855446875,
			0.09715025895509133,
			-1.4214622102836787,
			0.09322840425532904,
			1.7165025699783822,
			-0.14371628946597773,
			0.30178384973397326,
			0.0678338722383327,
			0.7928698980244726,
			-0.012522577128672741,
			-1.537400915499158,
			2.5676739552939614,
			0.05262517888514131,
			-0.22333921620157982,
			1.6965077195171512,
			-0.27245710468462847,
			0.3509418508032887,
			-2.531952943653821,
			0.1404774102241529,
			0.4265671862568721,
			-0.289712819533443,
			0.23737581600473268,
			-0.5067425371923238,
			-0.11199980404054005,
			-1.7551361345380734,
			-0.2553231350060627,
			1.108566065730804,
			0.8258612639441737,
			0.17341074139412052,
			-1.617362115314882,
			-0.2554261874080741,
			1.031402730824956,
			-0.06531106405162408,
			-1.697938617001707,
			-0.02687619684034908,
			-0.07423625497315856,
			-2.247083548192877,
			-0.942651075470006,
			0.07952331863356576,
			0.07246133753490666,
			0.2547376838557675,
			-1.3238064470605329,
			-0.0706413605174384,
			-1.7510155075737117,
			0.1906594839944131,
			-0.6784468608524873,
			0.0670528659019176,
			0.31067070868477004,
			0.39524257416215236,
			2.27587863645455,
			-0.1710229590912115,
			-0.01689850275186764,
			-0.35448048711782376
		],
		"W2": [
			-0.13158761968532715,
			-1.3393097288598956,
			0.17012959483658313,
			0.11999867556819907,
			-0.8657823752369272,
			1.2294520494402743,
			0.08275253512698923,
			-0.9132224316670228,
			-1.0989298446147873,
			-0.010703229658376135,
			-1.371474021384676,
			-0.7720206794690666,
			-2.8645803954106968,
			-0.27667217697618857,
			0.8328542896820751,
			0.6410533900083847,
			1.6832047323769752,
			0.7195609083466147,
			0.47207793414450566,
			-1.5160623232694195,
			-0.16518627096315983,
			1.260583860920357,
			-1.4890566251333681,
			-0.2571711579197886,
			-0.650151208526217,
			0.9480139633845045,
			0.8825891872386585,
			-0.34122755273828675,
			-1.1611939855126183,
			-0.07870777740287614,
			1.388175303377287,
			0.5781595677480877,
			0.12196890390160124,
			-0.382205208783306,
			-0.6395564792020512,
			-1.2522005560846083,
			2.719038927790245,
			0.2869906827912724,
			0.07947533835384818,
			0.1554868707751139,
			-0.7823397486444837,
			-1.2250908756039294,
			0.735508197624053,
			1.2737366082603183,
			-0.028930773994959285,
			-0.1557455781878615,
			1.2258289011317174,
			1.063179506515685,
			-0.5118637884327532,
			-0.4392225380690107,
			-0.6813504407778876,
			0.4155417619806936,
			-0.18052357377086514,
			-0.40999418528473464,
			-0.16704665987399062,
			-0.6505066943697417,
			1.018100516132462,
			1.3446972173120555,
			0.36520828178253395,
			1.3833528746863855,
			-1.4771281933551843,
			-0.15184988826319587,
			0.33756686123801727,
			0.9436540030647401,
			-0.11573263365848087,
			0.27206739184663065,
			-0.1267516266130009,
			0.7879729864795509,
			3.1327451289352606,
			0.21806213354001303,
			0.8373638523641388,
			-0.30024021946193036,
			0.10480342040785294,
			1.633725444146273,
			-0.33948843520176925,
			0.41523861344649354,
			0.0505923865549036,
			-0.3731834319488843,
			0.2632399453119249,
			-0.6890977015997466,
			-0.5434335104825871,
			0.8242888884715361,
			1.847834394573587,
			0.2819957233608657,
			-1.8823487193756885,
			-0.16793443217832663,
			0.8145547041821378,
			-1.058050608168647,
			2.2557616934978055,
			-1.4937000003310927,
			0.8429991715653848,
			0.05959965919462084,
			0.7971658663976656,
			-0.020557208843047,
			-1.5238492935290293,
			0.760814708700572,
			-0.3164054618374347,
			-0.7277557837514008,
			-3.358286657328589,
			-0.20663869238113183
		],
		"b1": [
			-1.9050964407848672,
			-2.5241783767848265,
			0.4979852650572336,
			-0.48443770728454133,
			-1.681558139717442,
			0.09027109050533517,
			-0.6078049332362726,
			0.3780283087762637,
			1.0882403650347183,
			-1.4507633277478746,
			1.3067339948681516,
			-0.0915276236967325,
			3.674431121211752,
			-1.633788305101843,
			0.9389887421418849,
			-0.2936466284041304,
			-1.080806549234514,
			1.8099450274175273,
			4.047989235202862,
			-0.546503725945556,
			0.3611576611295299,
			2.479480467382119,
			0.5205961387090369,
			-0.9638959603140359,
			-2.628373088195687,
			3.2116620888806473,
			-0.8473931448365124,
			-0.17846926077282563,
			-2.913669340687988,
			-2.6471536809417646,
			3.130761743822671,
			1.2948790834464294,
			-4.217347768122033,
			-0.018618781520927698,
			-0.3978292572313137,
			-3.2330863696176912,
			-2.104483875833559,
			1.5126128876807527,
			-2.9613094695288646,
			1.7501055951655045,
			3.454889678173458,
			-4.339319139672582,
			-1.5173110045413407,
			-0.8343796365564905,
			-0.2163019505707962,
			2.6989453752214305,
			0.35471018651465325,
			-0.4822195395745438,
			-4.120687627156386,
			0.7170668346405662
		],
		"b2": [
			-1.2664405307281401,
			0.2538429418497685
		]
	}
}