{
	"nn_structure": [
		2,
		56,
		2
	],
	"activation": "tanh",
	"mode": "regression",
	"optimizer": "adam",
	"learning_rate": 0.006486987915340006,
	"l2_regularization": 0.000007999157731370075,
	"n_iterations": 20000,
	"parameters": {
		"W1": [
			1.307004867799073,
			0.0570932488626797,
			0.006488757619144745,
			1.1811004441271045,
			1.0866312061011134,
			-0.22422030134032125,
			-1.2705759101386493,
			-0.011674568692854898,
			0.3940930588625287,
			0.7137173941496867,
			0.040549938541192904,
			-1.1399018996732901,
			-0.06342320798942018,
			1.394267198651513,
			-0.9560129585853846,
			0.32236634689596244,
			-2.270242159457115,
			0.05702623816734819,
			0.003382539877222904,
			-0.2627998002310022,
			-0.6352857401770582,
			0.02237009506571052,
			-0.6764713984317303,
			0.1410005166821955,
			-0.7880703524007087,
			-0.22864507785710295,
			-0.38970871321159967,
			-1.9989033738756639,
			-1.764387059085753,
			-0.18219221983689007,
			2.0106103971342573,
			0.09345476412497762,
			0.4495012756402449,
			-0.4468032428586626,
			0.0025293076264879697,
			1.1811670568452781,
			0.14531173986294488,
			-0.7546358539595948,
			-0.10358355539446326,
			1.4250727111123067,
			0.614032420523927,
			0.04333486914444412,
			-0.3292265324473857,
			-0.9194199812051881,
			0.09631765666844838,
			1.4851225006206894,
			0.0828215771146775,
			2.4466544287641856,
			0.4527973712284492,
			0.0719529003537582,
			-1.3122165285884257,
			0.004170188407912188,
			0.054779481834886574,
			-1.389932000123537,
			-0.6300559960740013,
			-0.6370451640233036,
			-0.09849821297111044,
			0.14508893691689326,
			0.3315371911409083,
			0.17852302387007862,
			-2.0547898622877896,
			0.20216062775567703,
			2.0543956985298255,
			-0.044325074132583575,
			0.08017111967571923,
			2.886371508606639,
			-1.3500645471748012,
			0.07642608152776366,
			0.18134711974345297,
			-0.19650731883277647,
			1.5108934896610837,
			0.1908308354457304,
			-0.13311506700876136,
			1.6408362859794197,
			-0.005894960712605911,
			1.0656639376334627,
			0.3603707973152819,
			-0.28090157243103886,
			0.28835684027251224,
			-0.20023683948090032,
			1.8769962619602323,
			0.3487047831727658,
			-0.22745898964902062,
			0.19251220296915197,
			-1.3468897274932694,
			-0.1444938282021262,
			1.282375439121135,
			0.27027072725136053,
			-0.4745601752572387,
			-0.508164656740139,
			0.2126072608617826,
			0.7659418384975765,
			-0.009927849428606517,
			0.43608844264322477,
			0.7188663586131493,
			0.09782266928453348,
			-0.4346335842569882,
			1.448843883187025,
			0.13462138603907867,
			1.1487481299376099,
			-0.29618912531548314,
			-0.3360211376852178,
			-0.34986349793923377,
			0.49251376610012293,
			-2.131340761857612,
			-0.08043422931330342,
			-2.1341488444133083,
			0.36126131979218024,
			0.38643408246930266,
			0.26027601124013716,
			1.7138937017049558,
			-0.44627623586454496
		],
		"W2": [
			0.3278517483581204,
			0.7245497914370034,
			0.07885449628947405,
			-0.3210133109471502,
			-0.1776041700547712,
			1.1667860928042448,
			1.1464225360786375,
			0.7997632586915672,
			-0.012027947789613774,
			-0.4735721484841932,
			0.28444575069986155,
			0.9252764028499633,
			-0.6957622801934579,
			-1.1361982481703046,
			0.009707834805310853,
			0.025153112040329276,
			-0.0065116171990387125,
			1.1072045333386071,
			-1.8984423888854638,
			1.233729049735618,
			-0.5016281956270944,
			-0.7968405965945359,
			1.503778314491344,
			2.819214432706452,
			-0.3042180972423409,
			0.2966887666059447,
			-1.2237858830306958,
			-0.41684787477702234,
			0.4301036978628729,
			0.19898484311698683,
			0.5790389075927207,
			0.3274035995010061,
			1.7124688566283706,
			-0.12875193985923056,
			-0.5195211896670103,
			-0.08170267246837071,
			1.067686479432551,
			-1.610507578974407,
			-0.6541754179680404,
			-1.051874753235727,
			0.3160068344954183,
			-0.05367740112360412,
			-0.22097190401113986,
			-0.9897972770092105,
			-0.3016232199270366,
			0.08405626995130483,
			0.7629424255787514,
			-0.06895552747349937,
			0.9773165109418799,
			0.8126701628602608,
			-1.0007896214781105,
			0.2713023311506223,
			0.5476237160836663,
			-0.14498682419825093,
			1.281461110733588,
			-0.004659985381631628,
			-1.5249304733033953,
			-0.49082357408796407,
			-1.4752807811990516,
			1.3012523497973751,
			-0.8131686299704599,
			0.2768961567105701,
			-0.44455313970105687,
			0.7766784332180972,
			1.3137035337104304,
			-0.06312355377997676,
			0.9356309752798493,
			1.0569860492040466,
			1.4737929544438189,
			-0.19690989738112308,
			0.8386266036611615,
			0.8494240864635649,
			-1.39981435564464,
			-0.48622058984982625,
			-0.6829427821347503,
			0.9894443370582284,
			-2.3381038483562264,
			0.487170132228061,
			-0.00012987761419185935,
			-0.2961484764129234,
			-1.1390741809907146,
			-1.022662621266112,
			0.3693327117360811,
			0.8002935442486674,
			0.13294750318554116,
			-1.5915292087491826,
			1.855991229667693,
			-0.8129812076235685,
			-0.21665803825451818,
			-1.027710837519746,
			-0.4781091067791585,
			1.4473985325477792,
			-0.23262093126414077,
			0.6046951036451333,
			-1.5437276243162843,
			-1.5903550216209767,
			-0.8547376923139693,
			0.20592748731490176,
			-1.1036671055297058,
			-0.9598604689437109,
			-0.480223086656935,
			-0.7371717511957484,
			0.0079876248406128,
			-0.6709604912110461,
			0.2815119794269647,
			0.09593141367465499,
			1.645238430348098,
			0.7979163786536149,
			3.1443583120179857,
			0.6735226252378199,
			-1.1876380044272863,
			-0.7176665264043184
		],
		"b1": [
			-2.22433985058538,
			2.156118150351623,
			-2.031409821588762,
			2.1818420024807814,
			-0.07411938429742032,
			-0.12676446975660774,
			2.3790138818102737,
			1.721004150008738,
			4.395811819677211,
			0.5549192923508094,
			-1.3443005189248098,
			0.9023234189189704,
			1.3429129508370083,
			-3.3802797863383196,
			-2.546500755361704,
			-0.9610598867094523,
			-1.0426387675170756,
			2.0880056988117097,
			1.5242385550130806,
			2.543377390635025,
			1.408151317989788,
			-1.1962953799759655,
			-1.8099997898708735,
			-3.7961865841577436,
			1.262199640142049,
			-0.11927231870030666,
			-2.3211136281831166,
			1.567998605625749,
			-0.7895208942401998,
			0.2376415489180604,
			4.064329970984317,
			3.694131329398721,
			5.334918456184785,
			-0.28874926588422767,
			0.5368135743868773,
			-1.8437761450240047,
			3.180195965243258,
			-0.08143323013611195,
			0.24066730165152214,
			0.4970688772547296,
			-3.636498672844819,
			0.02646436929679248,
			-0.2171142090581258,
			-2.2790666146112297,
			-0.04797545859304594,
			-0.8510809781699094,
			-0.6932854510117427,
			1.5001522643489649,
			-2.552108616548856,
			1.4614151186132713,
			0.15299824468237636,
			-0.0049310971022657815,
			-3.7658364452055677,
			-3.222674529307189,
			-0.4230436275642792,
			-3.3388555802907933
		],
		"b2": [
			-1.119344454119519,
			-0.636079634505079
		]
	}
}